3.033255847331740862e-02 8.231843164374448574e-02 3.354744006604754719e-02 1.882293339795493986e-02 -3.778705013931341061e-02 3.607692353286125198e-02 -1.436481026567595562e-02 4.574232393417784585e-03 2.043284195250905100e-02 6.915785765207203839e-03 -4.392432142569944499e-03 -1.835884538444232036e-02 -4.940425143742855317e-03 6.522277271378935926e-02 6.920219586119784327e-02 1.515761851488950374e-01 5.789094774270001770e-02 1.721955565280862063e-02 -5.093189557727173175e-03 -8.610982027120984983e-02 2.905105653932349430e-02 3.778064452409694851e-02 -1.451109372954556553e-02 -1.019500021414327696e-02 5.577204213253811327e-02 -2.639117679040018510e-03 -2.750910561626286263e-02 2.697683250969786298e-02 -1.697763612408582229e-02 -3.119924375593448318e-02 1.914540763047762814e-02 1.263129453946099379e-01 1.858619708326758255e-02 6.939789305505775219e-02 3.920275139570924411e-02 5.013037813091715533e-02 1.232686021297059800e-02 -8.988189027962817379e-02 -1.161791652022290955e-01 -4.219624208499580392e-02 6.595947173092173415e-04 -4.315765271574814772e-03 1.817927006250680960e-02 1.441102010002042744e-01 3.534631755646721468e-02 7.731760125447627308e-02 8.624270089203284195e-02 7.564515319537630511e-02 -3.976290722862441812e-02 3.688338507627436820e-03 -6.077992620146271258e-02 1.682058762883418268e-01 1.061405151852912870e-02 3.478764751970384473e-03 4.870384340044563859e-02 1.098408456791091781e-01 6.513845182335177564e-02 3.737140922064074305e-02 -7.735677831086426592e-02 5.260102909709223756e-02 -7.300639558449291411e-03 4.404804735103820534e-02 -7.430578006871227381e-02 2.368195554579649587e-02 1.244447403916172645e-02 -6.574592788255183284e-02 -7.017682016356828478e-02 -6.884394599189222475e-02 -1.091741906048910166e-01 -2.624199239046907939e-03 -7.990879611101019131e-02 8.895701769694223937e-02 1.793751558497646559e-01 -1.847623689111238809e-01 -8.779332606577985865e-02 -8.868342564846778270e-03 -5.244679432784477707e-02 9.339034833196074858e-02 -7.817029028629481069e-02 6.548714315669230956e-02 2.535591656911286018e-03 9.930238829615977130e-05 6.206540404743772499e-02 -9.393955933439260275e-02 1.194942567736854283e-01 1.794438741227036282e-02 -5.082755443854575055e-03 5.052045274210511389e-02 1.829749879756832898e-01 -2.166543994471452003e-02 2.732997053745214386e-02 -4.154884743738630759e-02 8.324061147780406622e-02 5.461475105603860736e-02 -3.616015765223488249e-02 -4.058529604229004634e-02 3.402778933680321305e-02 -1.214092792502027840e-02 -7.803657716698987612e-02 7.779678803178141644e-02 -5.019255709165813817e-02 7.308981567114349043e-02 1.170435331314570171e-01 -1.465088088717653517e-02 1.771882809718157981e-01 -2.030128841707900048e-02 8.633003822998366883e-02 -4.986373400991869764e-02 -5.325308956898264570e-03 4.786530730977168330e-02 1.607966942794095480e-02 1.388783294972656124e-01 -4.699316400809596533e-02 -1.997089564614865781e-02 7.222515198216045672e-03 -2.125705040075978949e-02 3.428081833243746927e-03 2.882336334418064347e-02 2.012129753800092832e-02 -7.032892056521786173e-02 -8.352212537479102028e-02 1.041590586696116982e-01 2.224939006963936872e-01 2.898682220744459512e-02 3.964622158930287965e-02 3.174315535315508363e-02 -7.054645618591679629e-03 3.670152098618397613e-03 -4.720658013008548204e-02 -3.387999010684562828e-02 5.562967171581298040e-03 1.472455758371617879e-02 7.699000888649096264e-02 -2.610015291757223493e-02 3.908022543210133704e-02 -1.142438594688218075e-02 -1.050596847837804437e-01 -2.490891299334999087e-02 -3.461198249666491700e-02 1.849262466780990377e-02 -2.650262597717330249e-02 7.238993977877329622e-02 3.982682602930909255e-02 1.018731577914602955e-02 -2.845823445887699435e-02 -4.430687292293625928e-02 1.075300999743812255e-02 -7.232089273749713054e-02 2.510352154544683023e-02 -1.731795812391973693e-02 8.717314490575830965e-02 -6.369213842243270918e-02 -4.749067548201844902e-02 1.015669640645846250e-01 -1.123746856666617833e-01 -5.456234137581406074e-02 -1.920770128401557905e-02 -5.241070728433032226e-03 6.222841621589081385e-02 -4.431214112587283926e-02 5.091609718718223543e-02 5.539293348861652061e-02 -3.747428234051319862e-02 -7.389367419527431702e-02 6.347781456788367804e-02 8.812538717635050312e-03 -8.229083653057590875e-02 -5.321014598368509207e-02 1.233522505721283968e-01 6.552794644898374092e-03 9.711516049523875871e-02 3.776297392367541916e-02 -4.754364566739117948e-03 -1.065866277280562435e-02 2.377584724118909226e-02 -5.809996520846601176e-02 2.936227689254561346e-02 8.432855715454291856e-02 1.034943858627826313e-01 -6.860065495366136912e-02 6.138458402931996905e-02 -5.149280757906251477e-02 7.545344519521066627e-04 3.318974992180902250e-02 -1.847578615348683881e-02 -8.544092423797415570e-02 -1.000093373629406812e-01 7.456645817885866612e-02 -7.170837898075275996e-02 6.427925179484152152e-02 4.681095651719116568e-02 -2.257934525549674595e-02 -9.426650679612309791e-02 2.660710369415333204e-02 6.043645018624648618e-02 -6.072175436147056460e-02 2.215006887801020900e-03 3.453556430761868523e-02 -3.949998778344417094e-02 -1.106814677609246067e-01
